Language model created by QuickLM on Sun Sep 10 02:35:01 EDT 2023
Copyright (c) 1996-2010 Carnegie Mellon University and Alexander I. Rudnicky

The model is in standard ARPA format, designed by Doug Paul while he was at MITRE.

The code that was used to produce this language model is available in Open Source.
Please visit http://www.speech.cs.cmu.edu/tools/ for more information

The (fixed) discount mass is 0.5. The backoffs are computed using the ratio method.
This model based on a corpus of 8 sentences and 8 words

\data\
ngram 1=8
ngram 2=14
ngram 3=16

\1-grams:
-0.9031 </s> -0.3010
-0.9031 <s> -0.2430
-1.5051 CHROME -0.2430
-1.2041 CLOSE -0.2430
-1.2041 OPEN -0.2430
-1.5051 PAINT -0.2430
-1.5051 WORD -0.2430
-1.5051 YOUTUBE -0.2430

\2-grams:
-0.6021 <s> CLOSE 0.0000
-0.6021 <s> OPEN 0.0000
-0.3010 CHROME </s> -0.3010
-0.9031 CLOSE CHROME 0.0000
-0.9031 CLOSE PAINT 0.0000
-0.9031 CLOSE WORD 0.0000
-0.9031 CLOSE YOUTUBE 0.0000
-0.9031 OPEN CHROME 0.0000
-0.9031 OPEN PAINT 0.0000
-0.9031 OPEN WORD 0.0000
-0.9031 OPEN YOUTUBE 0.0000
-0.3010 PAINT </s> -0.3010
-0.3010 WORD </s> -0.3010
-0.3010 YOUTUBE </s> -0.3010

\3-grams:
-0.9031 <s> CLOSE CHROME
-0.9031 <s> CLOSE PAINT
-0.9031 <s> CLOSE WORD
-0.9031 <s> CLOSE YOUTUBE
-0.9031 <s> OPEN CHROME
-0.9031 <s> OPEN PAINT
-0.9031 <s> OPEN WORD
-0.9031 <s> OPEN YOUTUBE
-0.3010 CLOSE CHROME </s>
-0.3010 CLOSE PAINT </s>
-0.3010 CLOSE WORD </s>
-0.3010 CLOSE YOUTUBE </s>
-0.3010 OPEN CHROME </s>
-0.3010 OPEN PAINT </s>
-0.3010 OPEN WORD </s>
-0.3010 OPEN YOUTUBE </s>

\end\